<?xml version="1.0"?>
<opencv_storage>
<stage18>
  <maxWeakCount>5</maxWeakCount>
  <stageThreshold>-1.0113900899887085e+00</stageThreshold>
  <weakClassifiers>
    <_>
      <internalNodes>
        0 -1 88203 -2.1004128456115723e-01</internalNodes>
      <leafValues>
        1. -5.9550559520721436e-01</leafValues></_>
    <_>
      <internalNodes>
        0 -1 55249 2.3948909714818001e-02</internalNodes>
      <leafValues>
        3.1949406862258911e-01 -7.9407334327697754e-01</leafValues></_>
    <_>
      <internalNodes>
        0 -1 114213 2.3544607684016228e-03</internalNodes>
      <leafValues>
        3.3488968014717102e-01 -8.5199302434921265e-01</leafValues></_>
    <_>
      <internalNodes>
        0 -1 58960 -7.6128668151795864e-03</internalNodes>
      <leafValues>
        6.3140988349914551e-01 -4.6991202235221863e-01</leafValues></_>
    <_>
      <internalNodes>
        0 -1 31932 1.4766561798751354e-03</internalNodes>
      <leafValues>
        -5.8811074495315552e-01 5.9629660844802856e-01</leafValues></_></weakClassifiers></stage18>
</opencv_storage>
